digraph Tree {
node [shape=box, style="filled, rounded", color="black", fontname="helvetica"] ;
edge [fontname="helvetica"] ;
0 [label="Sulfate <= 294.901\nentropy = 0.965\nsamples = 2949\nvalue = [1799, 1150]\nclass = 0", fillcolor="#f6d2b8"] ;
1 [label="ph <= 6.665\nentropy = 0.996\nsamples = 341\nvalue = [158, 183]\nclass = 1", fillcolor="#e4f2fb"] ;
0 -> 1 [labeldistance=2.5, labelangle=45, headlabel="True"] ;
2 [label="Solids <= 27954.167\nentropy = 0.88\nsamples = 107\nvalue = [75, 32]\nclass = 0", fillcolor="#f0b78d"] ;
1 -> 2 ;
3 [label="Hardness <= 229.933\nentropy = 0.737\nsamples = 77\nvalue = [61, 16]\nclass = 0", fillcolor="#eca26d"] ;
2 -> 3 ;
4 [label="Conductivity <= 477.104\nentropy = 0.843\nsamples = 59\nvalue = [43, 16]\nclass = 0", fillcolor="#efb083"] ;
3 -> 4 ;
5 [label="Solids <= 9322.297\nentropy = 0.61\nsamples = 40\nvalue = [34, 6]\nclass = 0", fillcolor="#ea975c"] ;
4 -> 5 ;
6 [label="entropy = 0.0\nsamples = 2\nvalue = [0, 2]\nclass = 1", fillcolor="#399de5"] ;
5 -> 6 ;
7 [label="Sulfate <= 282.656\nentropy = 0.485\nsamples = 38\nvalue = [34, 4]\nclass = 0", fillcolor="#e89050"] ;
5 -> 7 ;
8 [label="Turbidity <= 3.325\nentropy = 0.702\nsamples = 21\nvalue = [17, 4]\nclass = 0", fillcolor="#eb9f68"] ;
7 -> 8 ;
9 [label="entropy = 0.0\nsamples = 2\nvalue = [0, 2]\nclass = 1", fillcolor="#399de5"] ;
8 -> 9 ;
10 [label="Sulfate <= 280.768\nentropy = 0.485\nsamples = 19\nvalue = [17, 2]\nclass = 0", fillcolor="#e89050"] ;
8 -> 10 ;
11 [label="entropy = 0.0\nsamples = 17\nvalue = [17, 0]\nclass = 0", fillcolor="#e58139"] ;
10 -> 11 ;
12 [label="entropy = 0.0\nsamples = 2\nvalue = [0, 2]\nclass = 1", fillcolor="#399de5"] ;
10 -> 12 ;
13 [label="entropy = 0.0\nsamples = 17\nvalue = [17, 0]\nclass = 0", fillcolor="#e58139"] ;
7 -> 13 ;
14 [label="Turbidity <= 4.959\nentropy = 0.998\nsamples = 19\nvalue = [9, 10]\nclass = 1", fillcolor="#ebf5fc"] ;
4 -> 14 ;
15 [label="Conductivity <= 563.76\nentropy = 0.918\nsamples = 15\nvalue = [5, 10]\nclass = 1", fillcolor="#9ccef2"] ;
14 -> 15 ;
16 [label="Chloramines <= 6.993\nentropy = 0.65\nsamples = 12\nvalue = [2, 10]\nclass = 1", fillcolor="#61b1ea"] ;
15 -> 16 ;
17 [label="Chloramines <= 5.5\nentropy = 1.0\nsamples = 4\nvalue = [2, 2]\nclass = 0", fillcolor="#ffffff"] ;
16 -> 17 ;
18 [label="entropy = 0.0\nsamples = 2\nvalue = [0, 2]\nclass = 1", fillcolor="#399de5"] ;
17 -> 18 ;
19 [label="entropy = 0.0\nsamples = 2\nvalue = [2, 0]\nclass = 0", fillcolor="#e58139"] ;
17 -> 19 ;
20 [label="entropy = 0.0\nsamples = 8\nvalue = [0, 8]\nclass = 1", fillcolor="#399de5"] ;
16 -> 20 ;
21 [label="entropy = 0.0\nsamples = 3\nvalue = [3, 0]\nclass = 0", fillcolor="#e58139"] ;
15 -> 21 ;
22 [label="entropy = 0.0\nsamples = 4\nvalue = [4, 0]\nclass = 0", fillcolor="#e58139"] ;
14 -> 22 ;
23 [label="entropy = 0.0\nsamples = 18\nvalue = [18, 0]\nclass = 0", fillcolor="#e58139"] ;
3 -> 23 ;
24 [label="Chloramines <= 5.676\nentropy = 0.997\nsamples = 30\nvalue = [14, 16]\nclass = 1", fillcolor="#e6f3fc"] ;
2 -> 24 ;
25 [label="entropy = 0.0\nsamples = 7\nvalue = [0, 7]\nclass = 1", fillcolor="#399de5"] ;
24 -> 25 ;
26 [label="ph <= 4.554\nentropy = 0.966\nsamples = 23\nvalue = [14, 9]\nclass = 0", fillcolor="#f6d2b8"] ;
24 -> 26 ;
27 [label="entropy = 0.0\nsamples = 5\nvalue = [5, 0]\nclass = 0", fillcolor="#e58139"] ;
26 -> 27 ;
28 [label="Sulfate <= 276.843\nentropy = 1.0\nsamples = 18\nvalue = [9, 9]\nclass = 0", fillcolor="#ffffff"] ;
26 -> 28 ;
29 [label="Conductivity <= 486.555\nentropy = 0.764\nsamples = 9\nvalue = [2, 7]\nclass = 1", fillcolor="#72b9ec"] ;
28 -> 29 ;
30 [label="entropy = 0.0\nsamples = 6\nvalue = [0, 6]\nclass = 1", fillcolor="#399de5"] ;
29 -> 30 ;
31 [label="Sulfate <= 269.863\nentropy = 0.918\nsamples = 3\nvalue = [2, 1]\nclass = 0", fillcolor="#f2c09c"] ;
29 -> 31 ;
32 [label="entropy = 0.0\nsamples = 2\nvalue = [2, 0]\nclass = 0", fillcolor="#e58139"] ;
31 -> 32 ;
33 [label="entropy = 0.0\nsamples = 1\nvalue = [0, 1]\nclass = 1", fillcolor="#399de5"] ;
31 -> 33 ;
34 [label="Trihalomethanes <= 67.187\nentropy = 0.764\nsamples = 9\nvalue = [7, 2]\nclass = 0", fillcolor="#eca572"] ;
28 -> 34 ;
35 [label="entropy = 0.0\nsamples = 2\nvalue = [0, 2]\nclass = 1", fillcolor="#399de5"] ;
34 -> 35 ;
36 [label="entropy = 0.0\nsamples = 7\nvalue = [7, 0]\nclass = 0", fillcolor="#e58139"] ;
34 -> 36 ;
37 [label="Solids <= 18202.111\nentropy = 0.938\nsamples = 234\nvalue = [83, 151]\nclass = 1", fillcolor="#a6d3f3"] ;
1 -> 37 ;
38 [label="Chloramines <= 10.012\nentropy = 0.971\nsamples = 55\nvalue = [33, 22]\nclass = 0", fillcolor="#f6d5bd"] ;
37 -> 38 ;
39 [label="Sulfate <= 232.214\nentropy = 0.925\nsamples = 50\nvalue = [33, 17]\nclass = 0", fillcolor="#f2c29f"] ;
38 -> 39 ;
40 [label="entropy = 0.0\nsamples = 3\nvalue = [0, 3]\nclass = 1", fillcolor="#399de5"] ;
39 -> 40 ;
41 [label="Solids <= 12404.481\nentropy = 0.879\nsamples = 47\nvalue = [33, 14]\nclass = 0", fillcolor="#f0b68d"] ;
39 -> 41 ;
42 [label="ph <= 8.371\nentropy = 0.337\nsamples = 16\nvalue = [15, 1]\nclass = 0", fillcolor="#e78946"] ;
41 -> 42 ;
43 [label="entropy = 0.0\nsamples = 15\nvalue = [15, 0]\nclass = 0", fillcolor="#e58139"] ;
42 -> 43 ;
44 [label="entropy = 0.0\nsamples = 1\nvalue = [0, 1]\nclass = 1", fillcolor="#399de5"] ;
42 -> 44 ;
45 [label="ph <= 7.008\nentropy = 0.981\nsamples = 31\nvalue = [18, 13]\nclass = 0", fillcolor="#f8dcc8"] ;
41 -> 45 ;
46 [label="entropy = 0.0\nsamples = 5\nvalue = [5, 0]\nclass = 0", fillcolor="#e58139"] ;
45 -> 46 ;
47 [label="Conductivity <= 406.437\nentropy = 1.0\nsamples = 26\nvalue = [13, 13]\nclass = 0", fillcolor="#ffffff"] ;
45 -> 47 ;
48 [label="Chloramines <= 7.745\nentropy = 0.845\nsamples = 11\nvalue = [3, 8]\nclass = 1", fillcolor="#83c2ef"] ;
47 -> 48 ;
49 [label="Organic_carbon <= 10.945\nentropy = 0.503\nsamples = 9\nvalue = [1, 8]\nclass = 1", fillcolor="#52a9e8"] ;
48 -> 49 ;
50 [label="entropy = 0.0\nsamples = 1\nvalue = [1, 0]\nclass = 0", fillcolor="#e58139"] ;
49 -> 50 ;
51 [label="entropy = 0.0\nsamples = 8\nvalue = [0, 8]\nclass = 1", fillcolor="#399de5"] ;
49 -> 51 ;
52 [label="entropy = 0.0\nsamples = 2\nvalue = [2, 0]\nclass = 0", fillcolor="#e58139"] ;
48 -> 52 ;
53 [label="Organic_carbon <= 15.642\nentropy = 0.918\nsamples = 15\nvalue = [10, 5]\nclass = 0", fillcolor="#f2c09c"] ;
47 -> 53 ;
54 [label="Organic_carbon <= 14.508\nentropy = 0.994\nsamples = 11\nvalue = [6, 5]\nclass = 0", fillcolor="#fbeade"] ;
53 -> 54 ;
55 [label="entropy = 0.811\nsamples = 8\nvalue = [6, 2]\nclass = 0", fillcolor="#eeab7b"] ;
54 -> 55 ;
56 [label="entropy = 0.0\nsamples = 3\nvalue = [0, 3]\nclass = 1", fillcolor="#399de5"] ;
54 -> 56 ;
57 [label="entropy = 0.0\nsamples = 4\nvalue = [4, 0]\nclass = 0", fillcolor="#e58139"] ;
53 -> 57 ;
58 [label="entropy = 0.0\nsamples = 5\nvalue = [0, 5]\nclass = 1", fillcolor="#399de5"] ;
38 -> 58 ;
59 [label="Hardness <= 198.885\nentropy = 0.855\nsamples = 179\nvalue = [50, 129]\nclass = 1", fillcolor="#86c3ef"] ;
37 -> 59 ;
60 [label="Turbidity <= 3.418\nentropy = 0.563\nsamples = 91\nvalue = [12, 79]\nclass = 1", fillcolor="#57ace9"] ;
59 -> 60 ;
61 [label="entropy = 0.0\nsamples = 20\nvalue = [0, 20]\nclass = 1", fillcolor="#399de5"] ;
60 -> 61 ;
62 [label="Organic_carbon <= 9.427\nentropy = 0.655\nsamples = 71\nvalue = [12, 59]\nclass = 1", fillcolor="#61b1ea"] ;
60 -> 62 ;
63 [label="Trihalomethanes <= 64.807\nentropy = 0.985\nsamples = 7\nvalue = [4, 3]\nclass = 0", fillcolor="#f8e0ce"] ;
62 -> 63 ;
64 [label="entropy = 0.0\nsamples = 4\nvalue = [4, 0]\nclass = 0", fillcolor="#e58139"] ;
63 -> 64 ;
65 [label="entropy = 0.0\nsamples = 3\nvalue = [0, 3]\nclass = 1", fillcolor="#399de5"] ;
63 -> 65 ;
66 [label="Conductivity <= 365.144\nentropy = 0.544\nsamples = 64\nvalue = [8, 56]\nclass = 1", fillcolor="#55abe9"] ;
62 -> 66 ;
67 [label="Conductivity <= 344.96\nentropy = 0.98\nsamples = 12\nvalue = [5, 7]\nclass = 1", fillcolor="#c6e3f8"] ;
66 -> 67 ;
68 [label="Sulfate <= 283.176\nentropy = 0.764\nsamples = 9\nvalue = [2, 7]\nclass = 1", fillcolor="#72b9ec"] ;
67 -> 68 ;
69 [label="entropy = 0.0\nsamples = 6\nvalue = [0, 6]\nclass = 1", fillcolor="#399de5"] ;
68 -> 69 ;
70 [label="Hardness <= 179.341\nentropy = 0.918\nsamples = 3\nvalue = [2, 1]\nclass = 0", fillcolor="#f2c09c"] ;
68 -> 70 ;
71 [label="entropy = 0.0\nsamples = 2\nvalue = [2, 0]\nclass = 0", fillcolor="#e58139"] ;
70 -> 71 ;
72 [label="entropy = 0.0\nsamples = 1\nvalue = [0, 1]\nclass = 1", fillcolor="#399de5"] ;
70 -> 72 ;
73 [label="entropy = 0.0\nsamples = 3\nvalue = [3, 0]\nclass = 0", fillcolor="#e58139"] ;
67 -> 73 ;
74 [label="ph <= 11.53\nentropy = 0.318\nsamples = 52\nvalue = [3, 49]\nclass = 1", fillcolor="#45a3e7"] ;
66 -> 74 ;
75 [label="Hardness <= 121.617\nentropy = 0.239\nsamples = 51\nvalue = [2, 49]\nclass = 1", fillcolor="#41a1e6"] ;
74 -> 75 ;
76 [label="Turbidity <= 3.985\nentropy = 0.918\nsamples = 3\nvalue = [1, 2]\nclass = 1", fillcolor="#9ccef2"] ;
75 -> 76 ;
77 [label="entropy = 0.0\nsamples = 1\nvalue = [1, 0]\nclass = 0", fillcolor="#e58139"] ;
76 -> 77 ;
78 [label="entropy = 0.0\nsamples = 2\nvalue = [0, 2]\nclass = 1", fillcolor="#399de5"] ;
76 -> 78 ;
79 [label="Trihalomethanes <= 78.897\nentropy = 0.146\nsamples = 48\nvalue = [1, 47]\nclass = 1", fillcolor="#3d9fe6"] ;
75 -> 79 ;
80 [label="entropy = 0.0\nsamples = 36\nvalue = [0, 36]\nclass = 1", fillcolor="#399de5"] ;
79 -> 80 ;
81 [label="entropy = 0.414\nsamples = 12\nvalue = [1, 11]\nclass = 1", fillcolor="#4ba6e7"] ;
79 -> 81 ;
82 [label="entropy = 0.0\nsamples = 1\nvalue = [1, 0]\nclass = 0", fillcolor="#e58139"] ;
74 -> 82 ;
83 [label="Sulfate <= 258.079\nentropy = 0.987\nsamples = 88\nvalue = [38, 50]\nclass = 1", fillcolor="#cfe7f9"] ;
59 -> 83 ;
84 [label="Conductivity <= 521.918\nentropy = 0.469\nsamples = 20\nvalue = [2, 18]\nclass = 1", fillcolor="#4fa8e8"] ;
83 -> 84 ;
85 [label="entropy = 0.0\nsamples = 17\nvalue = [0, 17]\nclass = 1", fillcolor="#399de5"] ;
84 -> 85 ;
86 [label="Sulfate <= 167.468\nentropy = 0.918\nsamples = 3\nvalue = [2, 1]\nclass = 0", fillcolor="#f2c09c"] ;
84 -> 86 ;
87 [label="entropy = 0.0\nsamples = 1\nvalue = [0, 1]\nclass = 1", fillcolor="#399de5"] ;
86 -> 87 ;
88 [label="entropy = 0.0\nsamples = 2\nvalue = [2, 0]\nclass = 0", fillcolor="#e58139"] ;
86 -> 88 ;
89 [label="Chloramines <= 8.55\nentropy = 0.998\nsamples = 68\nvalue = [36, 32]\nclass = 0", fillcolor="#fcf1e9"] ;
83 -> 89 ;
90 [label="Sulfate <= 294.176\nentropy = 0.981\nsamples = 62\nvalue = [36, 26]\nclass = 0", fillcolor="#f8dcc8"] ;
89 -> 90 ;
91 [label="Chloramines <= 7.731\nentropy = 0.965\nsamples = 59\nvalue = [36, 23]\nclass = 0", fillcolor="#f6d2b8"] ;
90 -> 91 ;
92 [label="Chloramines <= 7.622\nentropy = 0.99\nsamples = 52\nvalue = [29, 23]\nclass = 0", fillcolor="#fae5d6"] ;
91 -> 92 ;
93 [label="Trihalomethanes <= 62.707\nentropy = 0.96\nsamples = 47\nvalue = [29, 18]\nclass = 0", fillcolor="#f5cfb4"] ;
92 -> 93 ;
94 [label="entropy = 0.982\nsamples = 19\nvalue = [8, 11]\nclass = 1", fillcolor="#c9e4f8"] ;
93 -> 94 ;
95 [label="entropy = 0.811\nsamples = 28\nvalue = [21, 7]\nclass = 0", fillcolor="#eeab7b"] ;
93 -> 95 ;
96 [label="entropy = 0.0\nsamples = 5\nvalue = [0, 5]\nclass = 1", fillcolor="#399de5"] ;
92 -> 96 ;
97 [label="entropy = 0.0\nsamples = 7\nvalue = [7, 0]\nclass = 0", fillcolor="#e58139"] ;
91 -> 97 ;
98 [label="entropy = 0.0\nsamples = 3\nvalue = [0, 3]\nclass = 1", fillcolor="#399de5"] ;
90 -> 98 ;
99 [label="entropy = 0.0\nsamples = 6\nvalue = [0, 6]\nclass = 1", fillcolor="#399de5"] ;
89 -> 99 ;
100 [label="Sulfate <= 363.505\nentropy = 0.951\nsamples = 2608\nvalue = [1641, 967]\nclass = 0", fillcolor="#f4cbae"] ;
0 -> 100 [labeldistance=2.5, labelangle=-45, headlabel="False"] ;
101 [label="Hardness <= 164.361\nentropy = 0.93\nsamples = 2098\nvalue = [1373, 725]\nclass = 0", fillcolor="#f3c4a2"] ;
100 -> 101 ;
102 [label="ph <= 6.76\nentropy = 0.995\nsamples = 275\nvalue = [149, 126]\nclass = 0", fillcolor="#fbece0"] ;
101 -> 102 ;
103 [label="Organic_carbon <= 11.755\nentropy = 0.886\nsamples = 125\nvalue = [87, 38]\nclass = 0", fillcolor="#f0b88f"] ;
102 -> 103 ;
104 [label="Turbidity <= 2.782\nentropy = 0.362\nsamples = 29\nvalue = [27, 2]\nclass = 0", fillcolor="#e78a48"] ;
103 -> 104 ;
105 [label="ph <= 5.017\nentropy = 0.918\nsamples = 3\nvalue = [1, 2]\nclass = 1", fillcolor="#9ccef2"] ;
104 -> 105 ;
106 [label="entropy = 0.0\nsamples = 1\nvalue = [1, 0]\nclass = 0", fillcolor="#e58139"] ;
105 -> 106 ;
107 [label="entropy = 0.0\nsamples = 2\nvalue = [0, 2]\nclass = 1", fillcolor="#399de5"] ;
105 -> 107 ;
108 [label="entropy = 0.0\nsamples = 26\nvalue = [26, 0]\nclass = 0", fillcolor="#e58139"] ;
104 -> 108 ;
109 [label="Organic_carbon <= 13.784\nentropy = 0.954\nsamples = 96\nvalue = [60, 36]\nclass = 0", fillcolor="#f5cdb0"] ;
103 -> 109 ;
110 [label="Turbidity <= 4.353\nentropy = 0.787\nsamples = 17\nvalue = [4, 13]\nclass = 1", fillcolor="#76bbed"] ;
109 -> 110 ;
111 [label="Chloramines <= 5.499\nentropy = 0.391\nsamples = 13\nvalue = [1, 12]\nclass = 1", fillcolor="#49a5e7"] ;
110 -> 111 ;
112 [label="ph <= 5.969\nentropy = 1.0\nsamples = 2\nvalue = [1, 1]\nclass = 0", fillcolor="#ffffff"] ;
111 -> 112 ;
113 [label="entropy = 0.0\nsamples = 1\nvalue = [1, 0]\nclass = 0", fillcolor="#e58139"] ;
112 -> 113 ;
114 [label="entropy = 0.0\nsamples = 1\nvalue = [0, 1]\nclass = 1", fillcolor="#399de5"] ;
112 -> 114 ;
115 [label="entropy = 0.0\nsamples = 11\nvalue = [0, 11]\nclass = 1", fillcolor="#399de5"] ;
111 -> 115 ;
116 [label="Conductivity <= 472.614\nentropy = 0.811\nsamples = 4\nvalue = [3, 1]\nclass = 0", fillcolor="#eeab7b"] ;
110 -> 116 ;
117 [label="entropy = 0.0\nsamples = 3\nvalue = [3, 0]\nclass = 0", fillcolor="#e58139"] ;
116 -> 117 ;
118 [label="entropy = 0.0\nsamples = 1\nvalue = [0, 1]\nclass = 1", fillcolor="#399de5"] ;
116 -> 118 ;
119 [label="Chloramines <= 7.816\nentropy = 0.87\nsamples = 79\nvalue = [56, 23]\nclass = 0", fillcolor="#f0b58a"] ;
109 -> 119 ;
120 [label="Chloramines <= 5.316\nentropy = 0.68\nsamples = 50\nvalue = [41, 9]\nclass = 0", fillcolor="#eb9d64"] ;
119 -> 120 ;
121 [label="Chloramines <= 4.909\nentropy = 0.954\nsamples = 8\nvalue = [3, 5]\nclass = 1", fillcolor="#b0d8f5"] ;
120 -> 121 ;
122 [label="Organic_carbon <= 15.308\nentropy = 0.811\nsamples = 4\nvalue = [3, 1]\nclass = 0", fillcolor="#eeab7b"] ;
121 -> 122 ;
123 [label="entropy = 0.0\nsamples = 1\nvalue = [0, 1]\nclass = 1", fillcolor="#399de5"] ;
122 -> 123 ;
124 [label="entropy = 0.0\nsamples = 3\nvalue = [3, 0]\nclass = 0", fillcolor="#e58139"] ;
122 -> 124 ;
125 [label="entropy = 0.0\nsamples = 4\nvalue = [0, 4]\nclass = 1", fillcolor="#399de5"] ;
121 -> 125 ;
126 [label="Hardness <= 153.102\nentropy = 0.454\nsamples = 42\nvalue = [38, 4]\nclass = 0", fillcolor="#e88e4e"] ;
120 -> 126 ;
127 [label="entropy = 0.0\nsamples = 21\nvalue = [21, 0]\nclass = 0", fillcolor="#e58139"] ;
126 -> 127 ;
128 [label="Conductivity <= 520.419\nentropy = 0.702\nsamples = 21\nvalue = [17, 4]\nclass = 0", fillcolor="#eb9f68"] ;
126 -> 128 ;
129 [label="entropy = 0.503\nsamples = 18\nvalue = [16, 2]\nclass = 0", fillcolor="#e89152"] ;
128 -> 129 ;
130 [label="entropy = 0.918\nsamples = 3\nvalue = [1, 2]\nclass = 1", fillcolor="#9ccef2"] ;
128 -> 130 ;
131 [label="Turbidity <= 3.998\nentropy = 0.999\nsamples = 29\nvalue = [15, 14]\nclass = 0", fillcolor="#fdf7f2"] ;
119 -> 131 ;
132 [label="Sulfate <= 312.33\nentropy = 0.896\nsamples = 16\nvalue = [5, 11]\nclass = 1", fillcolor="#93caf1"] ;
131 -> 132 ;
133 [label="entropy = 0.0\nsamples = 2\nvalue = [2, 0]\nclass = 0", fillcolor="#e58139"] ;
132 -> 133 ;
134 [label="Hardness <= 141.885\nentropy = 0.75\nsamples = 14\nvalue = [3, 11]\nclass = 1", fillcolor="#6fb8ec"] ;
132 -> 134 ;
135 [label="entropy = 0.918\nsamples = 3\nvalue = [2, 1]\nclass = 0", fillcolor="#f2c09c"] ;
134 -> 135 ;
136 [label="entropy = 0.439\nsamples = 11\nvalue = [1, 10]\nclass = 1", fillcolor="#4da7e8"] ;
134 -> 136 ;
137 [label="ph <= 6.218\nentropy = 0.779\nsamples = 13\nvalue = [10, 3]\nclass = 0", fillcolor="#eda774"] ;
131 -> 137 ;
138 [label="Sulfate <= 354.206\nentropy = 0.439\nsamples = 11\nvalue = [10, 1]\nclass = 0", fillcolor="#e88e4d"] ;
137 -> 138 ;
139 [label="entropy = 0.0\nsamples = 10\nvalue = [10, 0]\nclass = 0", fillcolor="#e58139"] ;
138 -> 139 ;
140 [label="entropy = 0.0\nsamples = 1\nvalue = [0, 1]\nclass = 1", fillcolor="#399de5"] ;
138 -> 140 ;
141 [label="entropy = 0.0\nsamples = 2\nvalue = [0, 2]\nclass = 1", fillcolor="#399de5"] ;
137 -> 141 ;
142 [label="Sulfate <= 329.365\nentropy = 0.978\nsamples = 150\nvalue = [62, 88]\nclass = 1", fillcolor="#c4e2f7"] ;
102 -> 142 ;
143 [label="ph <= 7.125\nentropy = 0.755\nsamples = 46\nvalue = [10, 36]\nclass = 1", fillcolor="#70b8ec"] ;
142 -> 143 ;
144 [label="Hardness <= 159.747\nentropy = 0.996\nsamples = 13\nvalue = [7, 6]\nclass = 0", fillcolor="#fbede3"] ;
143 -> 144 ;
145 [label="Hardness <= 129.887\nentropy = 0.764\nsamples = 9\nvalue = [7, 2]\nclass = 0", fillcolor="#eca572"] ;
144 -> 145 ;
146 [label="entropy = 0.0\nsamples = 2\nvalue = [0, 2]\nclass = 1", fillcolor="#399de5"] ;
145 -> 146 ;
147 [label="entropy = 0.0\nsamples = 7\nvalue = [7, 0]\nclass = 0", fillcolor="#e58139"] ;
145 -> 147 ;
148 [label="entropy = 0.0\nsamples = 4\nvalue = [0, 4]\nclass = 1", fillcolor="#399de5"] ;
144 -> 148 ;
149 [label="Chloramines <= 3.501\nentropy = 0.439\nsamples = 33\nvalue = [3, 30]\nclass = 1", fillcolor="#4da7e8"] ;
143 -> 149 ;
150 [label="entropy = 0.0\nsamples = 1\nvalue = [1, 0]\nclass = 0", fillcolor="#e58139"] ;
149 -> 150 ;
151 [label="ph <= 9.101\nentropy = 0.337\nsamples = 32\nvalue = [2, 30]\nclass = 1", fillcolor="#46a4e7"] ;
149 -> 151 ;
152 [label="entropy = 0.0\nsamples = 21\nvalue = [0, 21]\nclass = 1", fillcolor="#399de5"] ;
151 -> 152 ;
153 [label="ph <= 9.242\nentropy = 0.684\nsamples = 11\nvalue = [2, 9]\nclass = 1", fillcolor="#65b3eb"] ;
151 -> 153 ;
154 [label="entropy = 0.0\nsamples = 1\nvalue = [1, 0]\nclass = 0", fillcolor="#e58139"] ;
153 -> 154 ;
155 [label="Sulfate <= 309.145\nentropy = 0.469\nsamples = 10\nvalue = [1, 9]\nclass = 1", fillcolor="#4fa8e8"] ;
153 -> 155 ;
156 [label="entropy = 0.0\nsamples = 1\nvalue = [1, 0]\nclass = 0", fillcolor="#e58139"] ;
155 -> 156 ;
157 [label="entropy = 0.0\nsamples = 9\nvalue = [0, 9]\nclass = 1", fillcolor="#399de5"] ;
155 -> 157 ;
158 [label="ph <= 9.27\nentropy = 1.0\nsamples = 104\nvalue = [52, 52]\nclass = 0", fillcolor="#ffffff"] ;
142 -> 158 ;
159 [label="Solids <= 4792.952\nentropy = 0.982\nsamples = 83\nvalue = [35, 48]\nclass = 1", fillcolor="#c9e4f8"] ;
158 -> 159 ;
160 [label="entropy = 0.0\nsamples = 4\nvalue = [4, 0]\nclass = 0", fillcolor="#e58139"] ;
159 -> 160 ;
161 [label="ph <= 8.904\nentropy = 0.966\nsamples = 79\nvalue = [31, 48]\nclass = 1", fillcolor="#b9dcf6"] ;
159 -> 161 ;
162 [label="Chloramines <= 10.419\nentropy = 0.981\nsamples = 74\nvalue = [31, 43]\nclass = 1", fillcolor="#c8e4f8"] ;
161 -> 162 ;
163 [label="Conductivity <= 497.287\nentropy = 0.962\nsamples = 70\nvalue = [27, 43]\nclass = 1", fillcolor="#b5dbf5"] ;
162 -> 163 ;
164 [label="entropy = 0.99\nsamples = 59\nvalue = [26, 33]\nclass = 1", fillcolor="#d5eaf9"] ;
163 -> 164 ;
165 [label="entropy = 0.439\nsamples = 11\nvalue = [1, 10]\nclass = 1", fillcolor="#4da7e8"] ;
163 -> 165 ;
166 [label="entropy = 0.0\nsamples = 4\nvalue = [4, 0]\nclass = 0", fillcolor="#e58139"] ;
162 -> 166 ;
167 [label="entropy = 0.0\nsamples = 5\nvalue = [0, 5]\nclass = 1", fillcolor="#399de5"] ;
161 -> 167 ;
168 [label="Solids <= 35995.893\nentropy = 0.702\nsamples = 21\nvalue = [17, 4]\nclass = 0", fillcolor="#eb9f68"] ;
158 -> 168 ;
169 [label="Conductivity <= 366.723\nentropy = 0.31\nsamples = 18\nvalue = [17, 1]\nclass = 0", fillcolor="#e78845"] ;
168 -> 169 ;
170 [label="Hardness <= 158.917\nentropy = 1.0\nsamples = 2\nvalue = [1, 1]\nclass = 0", fillcolor="#ffffff"] ;
169 -> 170 ;
171 [label="entropy = 0.0\nsamples = 1\nvalue = [0, 1]\nclass = 1", fillcolor="#399de5"] ;
170 -> 171 ;
172 [label="entropy = 0.0\nsamples = 1\nvalue = [1, 0]\nclass = 0", fillcolor="#e58139"] ;
170 -> 172 ;
173 [label="entropy = 0.0\nsamples = 16\nvalue = [16, 0]\nclass = 0", fillcolor="#e58139"] ;
169 -> 173 ;
174 [label="entropy = 0.0\nsamples = 3\nvalue = [0, 3]\nclass = 1", fillcolor="#399de5"] ;
168 -> 174 ;
175 [label="ph <= 9.755\nentropy = 0.913\nsamples = 1823\nvalue = [1224, 599]\nclass = 0", fillcolor="#f2bf9a"] ;
101 -> 175 ;
176 [label="Hardness <= 254.645\nentropy = 0.922\nsamples = 1747\nvalue = [1159, 588]\nclass = 0", fillcolor="#f2c19d"] ;
175 -> 176 ;
177 [label="Conductivity <= 328.879\nentropy = 0.912\nsamples = 1685\nvalue = [1134, 551]\nclass = 0", fillcolor="#f2be99"] ;
176 -> 177 ;
178 [label="Chloramines <= 6.365\nentropy = 0.989\nsamples = 189\nvalue = [106, 83]\nclass = 0", fillcolor="#f9e4d4"] ;
177 -> 178 ;
179 [label="ph <= 5.949\nentropy = 0.641\nsamples = 43\nvalue = [36, 7]\nclass = 0", fillcolor="#ea9a5f"] ;
178 -> 179 ;
180 [label="Solids <= 27005.431\nentropy = 0.985\nsamples = 7\nvalue = [3, 4]\nclass = 1", fillcolor="#cee6f8"] ;
179 -> 180 ;
181 [label="entropy = 0.0\nsamples = 4\nvalue = [0, 4]\nclass = 1", fillcolor="#399de5"] ;
180 -> 181 ;
182 [label="entropy = 0.0\nsamples = 3\nvalue = [3, 0]\nclass = 0", fillcolor="#e58139"] ;
180 -> 182 ;
183 [label="Organic_carbon <= 18.027\nentropy = 0.414\nsamples = 36\nvalue = [33, 3]\nclass = 0", fillcolor="#e78c4b"] ;
179 -> 183 ;
184 [label="Hardness <= 179.15\nentropy = 0.201\nsamples = 32\nvalue = [31, 1]\nclass = 0", fillcolor="#e6853f"] ;
183 -> 184 ;
185 [label="entropy = 0.811\nsamples = 4\nvalue = [3, 1]\nclass = 0", fillcolor="#eeab7b"] ;
184 -> 185 ;
186 [label="entropy = 0.0\nsamples = 28\nvalue = [28, 0]\nclass = 0", fillcolor="#e58139"] ;
184 -> 186 ;
187 [label="Sulfate <= 323.831\nentropy = 1.0\nsamples = 4\nvalue = [2, 2]\nclass = 0", fillcolor="#ffffff"] ;
183 -> 187 ;
188 [label="entropy = 0.0\nsamples = 2\nvalue = [0, 2]\nclass = 1", fillcolor="#399de5"] ;
187 -> 188 ;
189 [label="entropy = 0.0\nsamples = 2\nvalue = [2, 0]\nclass = 0", fillcolor="#e58139"] ;
187 -> 189 ;
190 [label="ph <= 5.895\nentropy = 0.999\nsamples = 146\nvalue = [70, 76]\nclass = 1", fillcolor="#eff7fd"] ;
178 -> 190 ;
191 [label="Sulfate <= 353.938\nentropy = 0.439\nsamples = 22\nvalue = [20, 2]\nclass = 0", fillcolor="#e88e4d"] ;
190 -> 191 ;
192 [label="Turbidity <= 4.597\nentropy = 0.276\nsamples = 21\nvalue = [20, 1]\nclass = 0", fillcolor="#e68743"] ;
191 -> 192 ;
193 [label="entropy = 0.0\nsamples = 19\nvalue = [19, 0]\nclass = 0", fillcolor="#e58139"] ;
192 -> 193 ;
194 [label="entropy = 1.0\nsamples = 2\nvalue = [1, 1]\nclass = 0", fillcolor="#ffffff"] ;
192 -> 194 ;
195 [label="entropy = 0.0\nsamples = 1\nvalue = [0, 1]\nclass = 1", fillcolor="#399de5"] ;
191 -> 195 ;
196 [label="ph <= 8.68\nentropy = 0.973\nsamples = 124\nvalue = [50, 74]\nclass = 1", fillcolor="#bfdff7"] ;
190 -> 196 ;
197 [label="Hardness <= 199.474\nentropy = 0.986\nsamples = 116\nvalue = [50, 66]\nclass = 1", fillcolor="#cfe7f9"] ;
196 -> 197 ;
198 [label="entropy = 0.997\nsamples = 64\nvalue = [34, 30]\nclass = 0", fillcolor="#fcf0e8"] ;
197 -> 198 ;
199 [label="entropy = 0.89\nsamples = 52\nvalue = [16, 36]\nclass = 1", fillcolor="#91c9f1"] ;
197 -> 199 ;
200 [label="entropy = 0.0\nsamples = 8\nvalue = [0, 8]\nclass = 1", fillcolor="#399de5"] ;
196 -> 200 ;
201 [label="ph <= 4.595\nentropy = 0.896\nsamples = 1496\nvalue = [1028, 468]\nclass = 0", fillcolor="#f1ba93"] ;
177 -> 201 ;
202 [label="Solids <= 21015.92\nentropy = 0.563\nsamples = 53\nvalue = [46, 7]\nclass = 0", fillcolor="#e99457"] ;
201 -> 202 ;
203 [label="Chloramines <= 6.163\nentropy = 0.949\nsamples = 19\nvalue = [12, 7]\nclass = 0", fillcolor="#f4caac"] ;
202 -> 203 ;
204 [label="entropy = 0.0\nsamples = 4\nvalue = [0, 4]\nclass = 1", fillcolor="#399de5"] ;
203 -> 204 ;
205 [label="Organic_carbon <= 14.179\nentropy = 0.722\nsamples = 15\nvalue = [12, 3]\nclass = 0", fillcolor="#eca06a"] ;
203 -> 205 ;
206 [label="entropy = 0.985\nsamples = 7\nvalue = [4, 3]\nclass = 0", fillcolor="#f8e0ce"] ;
205 -> 206 ;
207 [label="entropy = 0.0\nsamples = 8\nvalue = [8, 0]\nclass = 0", fillcolor="#e58139"] ;
205 -> 207 ;
208 [label="entropy = 0.0\nsamples = 34\nvalue = [34, 0]\nclass = 0", fillcolor="#e58139"] ;
202 -> 208 ;
209 [label="Trihalomethanes <= 112.109\nentropy = 0.904\nsamples = 1443\nvalue = [982, 461]\nclass = 0", fillcolor="#f1bc96"] ;
201 -> 209 ;
210 [label="Hardness <= 251.924\nentropy = 0.902\nsamples = 1439\nvalue = [982, 457]\nclass = 0", fillcolor="#f1bc95"] ;
209 -> 210 ;
211 [label="Solids <= 49753.979\nentropy = 0.904\nsamples = 1430\nvalue = [973, 457]\nclass = 0", fillcolor="#f1bc96"] ;
210 -> 211 ;
212 [label="entropy = 0.902\nsamples = 1427\nvalue = [973, 454]\nclass = 0", fillcolor="#f1bc95"] ;
211 -> 212 ;
213 [label="entropy = 0.0\nsamples = 3\nvalue = [0, 3]\nclass = 1", fillcolor="#399de5"] ;
211 -> 213 ;
214 [label="entropy = 0.0\nsamples = 9\nvalue = [9, 0]\nclass = 0", fillcolor="#e58139"] ;
210 -> 214 ;
215 [label="entropy = 0.0\nsamples = 4\nvalue = [0, 4]\nclass = 1", fillcolor="#399de5"] ;
209 -> 215 ;
216 [label="Chloramines <= 4.349\nentropy = 0.973\nsamples = 62\nvalue = [25, 37]\nclass = 1", fillcolor="#bfdff7"] ;
176 -> 216 ;
217 [label="entropy = 0.0\nsamples = 4\nvalue = [4, 0]\nclass = 0", fillcolor="#e58139"] ;
216 -> 217 ;
218 [label="Chloramines <= 9.24\nentropy = 0.944\nsamples = 58\nvalue = [21, 37]\nclass = 1", fillcolor="#a9d5f4"] ;
216 -> 218 ;
219 [label="Conductivity <= 424.26\nentropy = 0.899\nsamples = 54\nvalue = [17, 37]\nclass = 1", fillcolor="#94caf1"] ;
218 -> 219 ;
220 [label="Solids <= 24591.362\nentropy = 0.996\nsamples = 26\nvalue = [14, 12]\nclass = 0", fillcolor="#fbede3"] ;
219 -> 220 ;
221 [label="Turbidity <= 5.139\nentropy = 0.852\nsamples = 18\nvalue = [13, 5]\nclass = 0", fillcolor="#efb185"] ;
220 -> 221 ;
222 [label="entropy = 0.567\nsamples = 15\nvalue = [13, 2]\nclass = 0", fillcolor="#e99457"] ;
221 -> 222 ;
223 [label="entropy = 0.0\nsamples = 3\nvalue = [0, 3]\nclass = 1", fillcolor="#399de5"] ;
221 -> 223 ;
224 [label="ph <= 3.481\nentropy = 0.544\nsamples = 8\nvalue = [1, 7]\nclass = 1", fillcolor="#55abe9"] ;
220 -> 224 ;
225 [label="entropy = 0.0\nsamples = 1\nvalue = [1, 0]\nclass = 0", fillcolor="#e58139"] ;
224 -> 225 ;
226 [label="entropy = 0.0\nsamples = 7\nvalue = [0, 7]\nclass = 1", fillcolor="#399de5"] ;
224 -> 226 ;
227 [label="Trihalomethanes <= 35.069\nentropy = 0.491\nsamples = 28\nvalue = [3, 25]\nclass = 1", fillcolor="#51a9e8"] ;
219 -> 227 ;
228 [label="entropy = 0.0\nsamples = 1\nvalue = [1, 0]\nclass = 0", fillcolor="#e58139"] ;
227 -> 228 ;
229 [label="Solids <= 13420.913\nentropy = 0.381\nsamples = 27\nvalue = [2, 25]\nclass = 1", fillcolor="#49a5e7"] ;
227 -> 229 ;
230 [label="entropy = 0.971\nsamples = 5\nvalue = [2, 3]\nclass = 1", fillcolor="#bddef6"] ;
229 -> 230 ;
231 [label="entropy = 0.0\nsamples = 22\nvalue = [0, 22]\nclass = 1", fillcolor="#399de5"] ;
229 -> 231 ;
232 [label="entropy = 0.0\nsamples = 4\nvalue = [4, 0]\nclass = 0", fillcolor="#e58139"] ;
218 -> 232 ;
233 [label="Solids <= 29264.996\nentropy = 0.597\nsamples = 76\nvalue = [65, 11]\nclass = 0", fillcolor="#e9965b"] ;
175 -> 233 ;
234 [label="Hardness <= 218.118\nentropy = 0.469\nsamples = 70\nvalue = [63, 7]\nclass = 0", fillcolor="#e88f4f"] ;
233 -> 234 ;
235 [label="entropy = 0.0\nsamples = 37\nvalue = [37, 0]\nclass = 0", fillcolor="#e58139"] ;
234 -> 235 ;
236 [label="Hardness <= 228.217\nentropy = 0.746\nsamples = 33\nvalue = [26, 7]\nclass = 0", fillcolor="#eca36e"] ;
234 -> 236 ;
237 [label="Chloramines <= 7.47\nentropy = 0.918\nsamples = 9\nvalue = [3, 6]\nclass = 1", fillcolor="#9ccef2"] ;
236 -> 237 ;
238 [label="Organic_carbon <= 14.164\nentropy = 0.811\nsamples = 4\nvalue = [3, 1]\nclass = 0", fillcolor="#eeab7b"] ;
237 -> 238 ;
239 [label="entropy = 0.0\nsamples = 1\nvalue = [0, 1]\nclass = 1", fillcolor="#399de5"] ;
238 -> 239 ;
240 [label="entropy = 0.0\nsamples = 3\nvalue = [3, 0]\nclass = 0", fillcolor="#e58139"] ;
238 -> 240 ;
241 [label="entropy = 0.0\nsamples = 5\nvalue = [0, 5]\nclass = 1", fillcolor="#399de5"] ;
237 -> 241 ;
242 [label="Conductivity <= 580.625\nentropy = 0.25\nsamples = 24\nvalue = [23, 1]\nclass = 0", fillcolor="#e68642"] ;
236 -> 242 ;
243 [label="entropy = 0.0\nsamples = 23\nvalue = [23, 0]\nclass = 0", fillcolor="#e58139"] ;
242 -> 243 ;
244 [label="entropy = 0.0\nsamples = 1\nvalue = [0, 1]\nclass = 1", fillcolor="#399de5"] ;
242 -> 244 ;
245 [label="Conductivity <= 414.846\nentropy = 0.918\nsamples = 6\nvalue = [2, 4]\nclass = 1", fillcolor="#9ccef2"] ;
233 -> 245 ;
246 [label="entropy = 0.0\nsamples = 3\nvalue = [0, 3]\nclass = 1", fillcolor="#399de5"] ;
245 -> 246 ;
247 [label="Organic_carbon <= 18.671\nentropy = 0.918\nsamples = 3\nvalue = [2, 1]\nclass = 0", fillcolor="#f2c09c"] ;
245 -> 247 ;
248 [label="entropy = 0.0\nsamples = 2\nvalue = [2, 0]\nclass = 0", fillcolor="#e58139"] ;
247 -> 248 ;
249 [label="entropy = 0.0\nsamples = 1\nvalue = [0, 1]\nclass = 1", fillcolor="#399de5"] ;
247 -> 249 ;
250 [label="ph <= 7.794\nentropy = 0.998\nsamples = 510\nvalue = [268, 242]\nclass = 0", fillcolor="#fcf3ec"] ;
100 -> 250 ;
251 [label="Solids <= 18528.03\nentropy = 0.99\nsamples = 384\nvalue = [169, 215]\nclass = 1", fillcolor="#d5eaf9"] ;
250 -> 251 ;
252 [label="Hardness <= 220.547\nentropy = 0.901\nsamples = 167\nvalue = [53, 114]\nclass = 1", fillcolor="#95cbf1"] ;
251 -> 252 ;
253 [label="Hardness <= 147.641\nentropy = 0.963\nsamples = 129\nvalue = [50, 79]\nclass = 1", fillcolor="#b6dbf5"] ;
252 -> 253 ;
254 [label="Sulfate <= 391.603\nentropy = 0.286\nsamples = 20\nvalue = [1, 19]\nclass = 1", fillcolor="#43a2e6"] ;
253 -> 254 ;
255 [label="Sulfate <= 389.882\nentropy = 0.592\nsamples = 7\nvalue = [1, 6]\nclass = 1", fillcolor="#5aade9"] ;
254 -> 255 ;
256 [label="entropy = 0.0\nsamples = 6\nvalue = [0, 6]\nclass = 1", fillcolor="#399de5"] ;
255 -> 256 ;
257 [label="entropy = 0.0\nsamples = 1\nvalue = [1, 0]\nclass = 0", fillcolor="#e58139"] ;
255 -> 257 ;
258 [label="entropy = 0.0\nsamples = 13\nvalue = [0, 13]\nclass = 1", fillcolor="#399de5"] ;
254 -> 258 ;
259 [label="Conductivity <= 349.674\nentropy = 0.993\nsamples = 109\nvalue = [49, 60]\nclass = 1", fillcolor="#dbedfa"] ;
253 -> 259 ;
260 [label="Solids <= 11415.136\nentropy = 0.61\nsamples = 20\nvalue = [3, 17]\nclass = 1", fillcolor="#5caeea"] ;
259 -> 260 ;
261 [label="Chloramines <= 7.688\nentropy = 0.985\nsamples = 7\nvalue = [3, 4]\nclass = 1", fillcolor="#cee6f8"] ;
260 -> 261 ;
262 [label="entropy = 0.0\nsamples = 3\nvalue = [3, 0]\nclass = 0", fillcolor="#e58139"] ;
261 -> 262 ;
263 [label="entropy = 0.0\nsamples = 4\nvalue = [0, 4]\nclass = 1", fillcolor="#399de5"] ;
261 -> 263 ;
264 [label="entropy = 0.0\nsamples = 13\nvalue = [0, 13]\nclass = 1", fillcolor="#399de5"] ;
260 -> 264 ;
265 [label="Trihalomethanes <= 58.421\nentropy = 0.999\nsamples = 89\nvalue = [46, 43]\nclass = 0", fillcolor="#fdf7f2"] ;
259 -> 265 ;
266 [label="Solids <= 11982.826\nentropy = 0.871\nsamples = 24\nvalue = [7, 17]\nclass = 1", fillcolor="#8bc5f0"] ;
265 -> 266 ;
267 [label="Chloramines <= 6.396\nentropy = 0.954\nsamples = 8\nvalue = [5, 3]\nclass = 0", fillcolor="#f5cdb0"] ;
266 -> 267 ;
268 [label="entropy = 0.0\nsamples = 2\nvalue = [0, 2]\nclass = 1", fillcolor="#399de5"] ;
267 -> 268 ;
269 [label="entropy = 0.65\nsamples = 6\nvalue = [5, 1]\nclass = 0", fillcolor="#ea9a61"] ;
267 -> 269 ;
270 [label="Conductivity <= 454.443\nentropy = 0.544\nsamples = 16\nvalue = [2, 14]\nclass = 1", fillcolor="#55abe9"] ;
266 -> 270 ;
271 [label="entropy = 0.0\nsamples = 9\nvalue = [0, 9]\nclass = 1", fillcolor="#399de5"] ;
270 -> 271 ;
272 [label="entropy = 0.863\nsamples = 7\nvalue = [2, 5]\nclass = 1", fillcolor="#88c4ef"] ;
270 -> 272 ;
273 [label="Chloramines <= 6.171\nentropy = 0.971\nsamples = 65\nvalue = [39, 26]\nclass = 0", fillcolor="#f6d5bd"] ;
265 -> 273 ;
274 [label="entropy = 0.0\nsamples = 12\nvalue = [12, 0]\nclass = 0", fillcolor="#e58139"] ;
273 -> 274 ;
275 [label="Conductivity <= 403.969\nentropy = 1.0\nsamples = 53\nvalue = [27, 26]\nclass = 0", fillcolor="#fefaf8"] ;
273 -> 275 ;
276 [label="entropy = 0.764\nsamples = 18\nvalue = [14, 4]\nclass = 0", fillcolor="#eca572"] ;
275 -> 276 ;
277 [label="entropy = 0.952\nsamples = 35\nvalue = [13, 22]\nclass = 1", fillcolor="#aed7f4"] ;
275 -> 277 ;
278 [label="Chloramines <= 4.277\nentropy = 0.398\nsamples = 38\nvalue = [3, 35]\nclass = 1", fillcolor="#4aa5e7"] ;
252 -> 278 ;
279 [label="Sulfate <= 387.589\nentropy = 1.0\nsamples = 4\nvalue = [2, 2]\nclass = 0", fillcolor="#ffffff"] ;
278 -> 279 ;
280 [label="entropy = 0.0\nsamples = 2\nvalue = [2, 0]\nclass = 0", fillcolor="#e58139"] ;
279 -> 280 ;
281 [label="entropy = 0.0\nsamples = 2\nvalue = [0, 2]\nclass = 1", fillcolor="#399de5"] ;
279 -> 281 ;
282 [label="Hardness <= 273.153\nentropy = 0.191\nsamples = 34\nvalue = [1, 33]\nclass = 1", fillcolor="#3fa0e6"] ;
278 -> 282 ;
283 [label="entropy = 0.0\nsamples = 33\nvalue = [0, 33]\nclass = 1", fillcolor="#399de5"] ;
282 -> 283 ;
284 [label="entropy = 0.0\nsamples = 1\nvalue = [1, 0]\nclass = 0", fillcolor="#e58139"] ;
282 -> 284 ;
285 [label="Chloramines <= 5.216\nentropy = 0.997\nsamples = 217\nvalue = [116, 101]\nclass = 0", fillcolor="#fcefe5"] ;
251 -> 285 ;
286 [label="ph <= 6.847\nentropy = 0.787\nsamples = 34\nvalue = [8, 26]\nclass = 1", fillcolor="#76bbed"] ;
285 -> 286 ;
287 [label="Conductivity <= 530.817\nentropy = 0.276\nsamples = 21\nvalue = [1, 20]\nclass = 1", fillcolor="#43a2e6"] ;
286 -> 287 ;
288 [label="entropy = 0.0\nsamples = 20\nvalue = [0, 20]\nclass = 1", fillcolor="#399de5"] ;
287 -> 288 ;
289 [label="entropy = 0.0\nsamples = 1\nvalue = [1, 0]\nclass = 0", fillcolor="#e58139"] ;
287 -> 289 ;
290 [label="Organic_carbon <= 17.184\nentropy = 0.996\nsamples = 13\nvalue = [7, 6]\nclass = 0", fillcolor="#fbede3"] ;
286 -> 290 ;
291 [label="Solids <= 24667.37\nentropy = 0.971\nsamples = 10\nvalue = [4, 6]\nclass = 1", fillcolor="#bddef6"] ;
290 -> 291 ;
292 [label="entropy = 0.0\nsamples = 3\nvalue = [0, 3]\nclass = 1", fillcolor="#399de5"] ;
291 -> 292 ;
293 [label="Solids <= 34512.482\nentropy = 0.985\nsamples = 7\nvalue = [4, 3]\nclass = 0", fillcolor="#f8e0ce"] ;
291 -> 293 ;
294 [label="Conductivity <= 534.167\nentropy = 0.722\nsamples = 5\nvalue = [4, 1]\nclass = 0", fillcolor="#eca06a"] ;
293 -> 294 ;
295 [label="entropy = 0.0\nsamples = 4\nvalue = [4, 0]\nclass = 0", fillcolor="#e58139"] ;
294 -> 295 ;
296 [label="entropy = 0.0\nsamples = 1\nvalue = [0, 1]\nclass = 1", fillcolor="#399de5"] ;
294 -> 296 ;
297 [label="entropy = 0.0\nsamples = 2\nvalue = [0, 2]\nclass = 1", fillcolor="#399de5"] ;
293 -> 297 ;
298 [label="entropy = 0.0\nsamples = 3\nvalue = [3, 0]\nclass = 0", fillcolor="#e58139"] ;
290 -> 298 ;
299 [label="Trihalomethanes <= 41.578\nentropy = 0.976\nsamples = 183\nvalue = [108, 75]\nclass = 0", fillcolor="#f7d8c2"] ;
285 -> 299 ;
300 [label="Organic_carbon <= 13.83\nentropy = 0.722\nsamples = 10\nvalue = [2, 8]\nclass = 1", fillcolor="#6ab6ec"] ;
299 -> 300 ;
301 [label="Chloramines <= 7.981\nentropy = 0.918\nsamples = 3\nvalue = [2, 1]\nclass = 0", fillcolor="#f2c09c"] ;
300 -> 301 ;
302 [label="entropy = 0.0\nsamples = 1\nvalue = [0, 1]\nclass = 1", fillcolor="#399de5"] ;
301 -> 302 ;
303 [label="entropy = 0.0\nsamples = 2\nvalue = [2, 0]\nclass = 0", fillcolor="#e58139"] ;
301 -> 303 ;
304 [label="entropy = 0.0\nsamples = 7\nvalue = [0, 7]\nclass = 1", fillcolor="#399de5"] ;
300 -> 304 ;
305 [label="Organic_carbon <= 10.625\nentropy = 0.963\nsamples = 173\nvalue = [106, 67]\nclass = 0", fillcolor="#f5d1b6"] ;
299 -> 305 ;
306 [label="Organic_carbon <= 6.667\nentropy = 0.667\nsamples = 23\nvalue = [19, 4]\nclass = 0", fillcolor="#ea9c63"] ;
305 -> 306 ;
307 [label="entropy = 0.0\nsamples = 2\nvalue = [0, 2]\nclass = 1", fillcolor="#399de5"] ;
306 -> 307 ;
308 [label="Chloramines <= 8.308\nentropy = 0.454\nsamples = 21\nvalue = [19, 2]\nclass = 0", fillcolor="#e88e4e"] ;
306 -> 308 ;
309 [label="entropy = 0.0\nsamples = 17\nvalue = [17, 0]\nclass = 0", fillcolor="#e58139"] ;
308 -> 309 ;
310 [label="Organic_carbon <= 9.443\nentropy = 1.0\nsamples = 4\nvalue = [2, 2]\nclass = 0", fillcolor="#ffffff"] ;
308 -> 310 ;
311 [label="entropy = 0.0\nsamples = 2\nvalue = [2, 0]\nclass = 0", fillcolor="#e58139"] ;
310 -> 311 ;
312 [label="entropy = 0.0\nsamples = 2\nvalue = [0, 2]\nclass = 1", fillcolor="#399de5"] ;
310 -> 312 ;
313 [label="Hardness <= 201.336\nentropy = 0.981\nsamples = 150\nvalue = [87, 63]\nclass = 0", fillcolor="#f8dcc8"] ;
305 -> 313 ;
314 [label="Chloramines <= 10.027\nentropy = 0.946\nsamples = 107\nvalue = [68, 39]\nclass = 0", fillcolor="#f4c9ab"] ;
313 -> 314 ;
315 [label="ph <= 6.883\nentropy = 0.925\nsamples = 103\nvalue = [68, 35]\nclass = 0", fillcolor="#f2c29f"] ;
314 -> 315 ;
316 [label="entropy = 0.993\nsamples = 60\nvalue = [33, 27]\nclass = 0", fillcolor="#fae8db"] ;
315 -> 316 ;
317 [label="entropy = 0.693\nsamples = 43\nvalue = [35, 8]\nclass = 0", fillcolor="#eb9e66"] ;
315 -> 317 ;
318 [label="entropy = 0.0\nsamples = 4\nvalue = [0, 4]\nclass = 1", fillcolor="#399de5"] ;
314 -> 318 ;
319 [label="Hardness <= 211.684\nentropy = 0.99\nsamples = 43\nvalue = [19, 24]\nclass = 1", fillcolor="#d6ebfa"] ;
313 -> 319 ;
320 [label="entropy = 0.0\nsamples = 7\nvalue = [0, 7]\nclass = 1", fillcolor="#399de5"] ;
319 -> 320 ;
321 [label="Chloramines <= 7.999\nentropy = 0.998\nsamples = 36\nvalue = [19, 17]\nclass = 0", fillcolor="#fcf2ea"] ;
319 -> 321 ;
322 [label="entropy = 0.918\nsamples = 21\nvalue = [7, 14]\nclass = 1", fillcolor="#9ccef2"] ;
321 -> 322 ;
323 [label="entropy = 0.722\nsamples = 15\nvalue = [12, 3]\nclass = 0", fillcolor="#eca06a"] ;
321 -> 323 ;
324 [label="Chloramines <= 9.431\nentropy = 0.75\nsamples = 126\nvalue = [99, 27]\nclass = 0", fillcolor="#eca36f"] ;
250 -> 324 ;
325 [label="ph <= 9.478\nentropy = 0.676\nsamples = 118\nvalue = [97, 21]\nclass = 0", fillcolor="#eb9c64"] ;
324 -> 325 ;
326 [label="Solids <= 15759.728\nentropy = 0.491\nsamples = 84\nvalue = [75, 9]\nclass = 0", fillcolor="#e89051"] ;
325 -> 326 ;
327 [label="Solids <= 14986.391\nentropy = 0.811\nsamples = 28\nvalue = [21, 7]\nclass = 0", fillcolor="#eeab7b"] ;
326 -> 327 ;
328 [label="Hardness <= 223.092\nentropy = 0.634\nsamples = 25\nvalue = [21, 4]\nclass = 0", fillcolor="#ea995f"] ;
327 -> 328 ;
329 [label="Sulfate <= 416.186\nentropy = 0.286\nsamples = 20\nvalue = [19, 1]\nclass = 0", fillcolor="#e68843"] ;
328 -> 329 ;
330 [label="entropy = 0.0\nsamples = 18\nvalue = [18, 0]\nclass = 0", fillcolor="#e58139"] ;
329 -> 330 ;
331 [label="Organic_carbon <= 16.685\nentropy = 1.0\nsamples = 2\nvalue = [1, 1]\nclass = 0", fillcolor="#ffffff"] ;
329 -> 331 ;
332 [label="entropy = 0.0\nsamples = 1\nvalue = [1, 0]\nclass = 0", fillcolor="#e58139"] ;
331 -> 332 ;
333 [label="entropy = 0.0\nsamples = 1\nvalue = [0, 1]\nclass = 1", fillcolor="#399de5"] ;
331 -> 333 ;
334 [label="ph <= 8.294\nentropy = 0.971\nsamples = 5\nvalue = [2, 3]\nclass = 1", fillcolor="#bddef6"] ;
328 -> 334 ;
335 [label="entropy = 0.0\nsamples = 3\nvalue = [0, 3]\nclass = 1", fillcolor="#399de5"] ;
334 -> 335 ;
336 [label="entropy = 0.0\nsamples = 2\nvalue = [2, 0]\nclass = 0", fillcolor="#e58139"] ;
334 -> 336 ;
337 [label="entropy = 0.0\nsamples = 3\nvalue = [0, 3]\nclass = 1", fillcolor="#399de5"] ;
327 -> 337 ;
338 [label="Organic_carbon <= 12.836\nentropy = 0.222\nsamples = 56\nvalue = [54, 2]\nclass = 0", fillcolor="#e68640"] ;
326 -> 338 ;
339 [label="Turbidity <= 3.487\nentropy = 0.567\nsamples = 15\nvalue = [13, 2]\nclass = 0", fillcolor="#e99457"] ;
338 -> 339 ;
340 [label="Conductivity <= 380.508\nentropy = 1.0\nsamples = 4\nvalue = [2, 2]\nclass = 0", fillcolor="#ffffff"] ;
339 -> 340 ;
341 [label="entropy = 0.0\nsamples = 2\nvalue = [2, 0]\nclass = 0", fillcolor="#e58139"] ;
340 -> 341 ;
342 [label="entropy = 0.0\nsamples = 2\nvalue = [0, 2]\nclass = 1", fillcolor="#399de5"] ;
340 -> 342 ;
343 [label="entropy = 0.0\nsamples = 11\nvalue = [11, 0]\nclass = 0", fillcolor="#e58139"] ;
339 -> 343 ;
344 [label="entropy = 0.0\nsamples = 41\nvalue = [41, 0]\nclass = 0", fillcolor="#e58139"] ;
338 -> 344 ;
345 [label="Turbidity <= 4.284\nentropy = 0.937\nsamples = 34\nvalue = [22, 12]\nclass = 0", fillcolor="#f3c6a5"] ;
325 -> 345 ;
346 [label="Chloramines <= 5.048\nentropy = 0.991\nsamples = 27\nvalue = [15, 12]\nclass = 0", fillcolor="#fae6d7"] ;
345 -> 346 ;
347 [label="entropy = 0.0\nsamples = 6\nvalue = [6, 0]\nclass = 0", fillcolor="#e58139"] ;
346 -> 347 ;
348 [label="Organic_carbon <= 13.324\nentropy = 0.985\nsamples = 21\nvalue = [9, 12]\nclass = 1", fillcolor="#cee6f8"] ;
346 -> 348 ;
349 [label="Solids <= 6587.911\nentropy = 0.544\nsamples = 8\nvalue = [1, 7]\nclass = 1", fillcolor="#55abe9"] ;
348 -> 349 ;
350 [label="entropy = 0.0\nsamples = 1\nvalue = [1, 0]\nclass = 0", fillcolor="#e58139"] ;
349 -> 350 ;
351 [label="entropy = 0.0\nsamples = 7\nvalue = [0, 7]\nclass = 1", fillcolor="#399de5"] ;
349 -> 351 ;
352 [label="Conductivity <= 542.831\nentropy = 0.961\nsamples = 13\nvalue = [8, 5]\nclass = 0", fillcolor="#f5d0b5"] ;
348 -> 352 ;
353 [label="Solids <= 17323.116\nentropy = 0.722\nsamples = 10\nvalue = [8, 2]\nclass = 0", fillcolor="#eca06a"] ;
352 -> 353 ;
354 [label="entropy = 0.918\nsamples = 3\nvalue = [1, 2]\nclass = 1", fillcolor="#9ccef2"] ;
353 -> 354 ;
355 [label="entropy = 0.0\nsamples = 7\nvalue = [7, 0]\nclass = 0", fillcolor="#e58139"] ;
353 -> 355 ;
356 [label="entropy = 0.0\nsamples = 3\nvalue = [0, 3]\nclass = 1", fillcolor="#399de5"] ;
352 -> 356 ;
357 [label="entropy = 0.0\nsamples = 7\nvalue = [7, 0]\nclass = 0", fillcolor="#e58139"] ;
345 -> 357 ;
358 [label="Conductivity <= 464.703\nentropy = 0.811\nsamples = 8\nvalue = [2, 6]\nclass = 1", fillcolor="#7bbeee"] ;
324 -> 358 ;
359 [label="entropy = 0.0\nsamples = 5\nvalue = [0, 5]\nclass = 1", fillcolor="#399de5"] ;
358 -> 359 ;
360 [label="Organic_carbon <= 14.335\nentropy = 0.918\nsamples = 3\nvalue = [2, 1]\nclass = 0", fillcolor="#f2c09c"] ;
358 -> 360 ;
361 [label="entropy = 0.0\nsamples = 2\nvalue = [2, 0]\nclass = 0", fillcolor="#e58139"] ;
360 -> 361 ;
362 [label="entropy = 0.0\nsamples = 1\nvalue = [0, 1]\nclass = 1", fillcolor="#399de5"] ;
360 -> 362 ;
}